73 -106 -61 -11 -113 69 -91 -13 108 127 111 -50 55 35 -80 45 -95 60 -62 -69 108 91 -128 -65 63 -53 -123 -57 64 -67 -77 -121 121 -52 -74 81 104 10 -78 50 11 -74 1 -100 11 14 -53 4 56 -80 -34 32 72 80 87 26 -71 18 91 -58 55 -92 -61 -56 94 127 34 46 44 -16 -28 94 -2 -121 81 45 91 -31 48 126 -73 44 117 75 -72 -73 103 71 64 48 57 -117 105 -65 120 -80 -52 -118 32 105 61 -102 84 119 114 36 60 -74 -17 126 -17 101 21 -84 59 -51 3 -65 -3 54 -109 -58 -77 125 -109 -55 -113 -29
-119 110 21 -81 -83 -108 82 127 -69 -110 -99 125 88 94 43 -122 -89 5 -123 64 69 -79 103 -41 56 -54 110 -72 6 50 82 54 80 -121 93 -91 -3 -15 80 9 94 84 -118 4 124 40 22 89 108 -100 110 -28 -127 13 23 67 121 41 99 -111 62 2 105 40 74 118 21 -42 -71 -100 -82 -19 94 -43 83 -126 32 70 86 67 42 52 -4 68 34 70 -96 -55 -110 74 109 95 -43 -44 -84 123 -72 35 25 8 3 -116 -16 -26 127 -110 28 -107 62 79 57 -12 16 -34 -121 83 -38 -77 31 -75 45 -69 -84 1 52 119 119 21
-95 66 49 97 -61 117 -21 -112 -99 -52 14 -84 118 103 -107 106 -6 -65 -88 -25 -84 -49 -92 124 68 -66 -122 85 -17 107 96 -89 62 31 9 122 -110 34 22 -16 -109 21 1 30 81 -121 -97 -117 45 -98 51 94 -52 -58 105 101 19 -27 54 -65 124 -18 25 -108 20 95 29 36 -46 -23 49 121 23 -43 106 -52 -126 124 57 82 107 114 79 -66 28 -70 -108 110 -35 -75 72 11 -28 -69 -71 -74 26 37 40 -98 -35 55 18 -93 23 -81 85 -41 -28 -37 -23 -52 -9 74 60 33 93 -106 -55 -120 -87 22 96 84 116 51 -103 32
-9 51 122 -38 94 16 82 10 -108 114 -61 -68 -3 1 -49 -68 -112 -80 -46 77 -102 63 85 -84 -120 109 12 26 -65 -102 11 50 -18 11 -34 -2 -66 -27 -2 59 71 -16 92 110 -74 58 108 -42 99 -44 -78 39 28 52 114 7 -10 -109 73 45 -68 20 -119 -7 -80 96 72 -49 -20 -40 38 -21 125 38 65 -98 -123 51 49 -91 44 56 40 -89 -123 68 11 -45 124 105 -97 68 127 -79 1 26 36 -29 -77 3 66 77 0 -8 0 45 -85 -10 -117 -107 44 21 -12 -1 46 64 93 100 -50 93 -55 52 -5 115 -91 -68 84 119
100 12 -114 -93 50 -34 26 -103 82 84 125 114 -21 103 103 -45 -124 -50 16 -99 -93 22 -90 -29 111 31 2 125 117 23 -53 24 -66 -5 44 -16 -63 90 39 37 39 127 -29 -92 127 38 57 52 -76 -126 -68 44 -29 -121 -97 109 47 87 110 -61 -104 21 32 124 16 4 79 18 -5 62 -8 39 125 44 -107 -99 126 -25 -59 62 70 -11 -113 92 -78 -88 -85 -113 19 -108 74 -128 91 -40 -30 -80 73 -2 85 8 42 107 -115 -112 -104 -109 32 -12 85 -21 -66 -34 -23 -45 -67 -11 -77 -42 -58 -120 57 -55 -52 52 -89 83 63 -12
78 -122 -26 -118 -53 -86 104 -67 58 -68 55 -72 78 -86 119 -98 26 -121 74 -40 -38 -50 70 62 -6 49 -30 117 11 -113 -111 -53 78 -32 -96 -7 -49 -20 16 -68 96 117 105 30 -83 -118 7 8 127 48 -64 -32 4 113 25 51 -37 72 -81 -34 -17 -128 126 10 -94 117 29 12 -75 -120 -96 46 32 -124 116 6 23 -28 -86 -121 79 61 -84 91 69 -52 116 103 120 -41 -102 62 -14 101 -39 -20 -96 0 -108 18 54 -16 -90 -78 -80 -29 -108 38 76 -76 28 120 24 -34 64 -125 -32 -102 -68 58 86 -53 20 -110 4 19 -64 114
80 -28 -32 20 103 4 -43 -66 61 -45 32 101 -25 -9 7 69 19 -30 11 -45 -86 6 -6 25 -16 -78 3 -55 19 -33 37 52 -89 54 91 -34 -113 -18 -30 117 -120 73 90 -2 -88 -109 -78 22 -122 79 44 -31 123 -6 16 -96 -70 -66 -62 -120 -37 32 -121 -47 -115 86 -16 -13 -59 -83 37 125 -52 -124 72 114 -3 23 -21 -7 76 -34 12 -26 -98 120 -106 -58 126 120 76 122 -83 -82 -103 8 37 -37 -86 20 -109 21 -12 -115 -123 4 12 63 -13 -113 60 -61 16 5 27 -70 61 -15 -59 22 57 -19 12 96 2 -121 127 111
-102 114 -24 -8 -35 -12 -11 -111 6 71 -91 6 109 10 66 14 124 65 -104 110 -74 -23 100 -4 -84 16 62 -124 31 15 30 -111 -28 -17 -76 -29 -124 -114 59 25 99 121 108 -126 52 -26 -66 -75 110 77 127 -47 -21 87 102 92 13 77 92 93 -26 113 67 120 46 61 -53 117 36 57 47 82 101 -117 -58 -46 -30 97 -31 -38 -107 93 -48 44 -121 122 20 -81 -39 16 -125 47 83 57 124 -106 8 -13 115 48 -37 -108 30 101 -122 -5 113 -12 47 -105 -64 -14 81 116 92 101 -35 -76 -125 20 6 -35 -13 121 86 50 -36 37
49 -97 118 65 1 -98 84 -8 -9 73 -64 -78 -18 31 36 -6 108 -111 -54 3 88 -85 -79 81 110 -100 85 112 -107 -46 -67 -3 114 91 6 19 -40 87 81 34 60 0 9 34 -119 28 -53 -122 28 34 -111 -56 31 91 -50 57 -38 54 -36 63 54 42 90 -53 -15 -27 80 28 43 24 -33 -18 -86 79 14 -35 112 -45 41 115 123 -8 29 -39 26 47 -15 46 24 38 -96 -87 44 118 -122 34 88 -43 -11 -78 -94 -54 94 3 -35 -31 8 74 63 116 105 29 43 0 101 -16 -13 -22 93 -125 58 -65 -118 110 31 -30 125 -113
113 53 -53 111 100 121 -21 70 -6 36 -81 63 -4 59 -29 -88 -70 8 110 -91 -81 -95 -123 -40 104 27 -120 -51 -75 26 -112 -126 -38 38 88 -73 97 -16 -117 9 123 28 21 82 120 102 48 0 70 -118 108 21 -44 -49 -56 -98 91 105 119 11 -78 -127 107 -87 12 -44 -126 117 98 28 -83 -46 -114 11 62 106 -4 -9 -52 -25 120 16 55 -105 79 29 -103 -38 115 16 -68 4 -43 -3 3 -40 51 69 60 -30 47 -83 90 119 86 -54 101 44 -63 53 51 21 -45 -64 -119 45 -26 14 -18 74 110 70 20 -16 51 63 -76 13
-94 17 -57 52 49 112 -32 -119 -19 -45 -59 -76 38 -12 68 -88 10 82 103 65 -13 46 68 66 90 -54 114 -57 4 -114 68 50 -2 20 59 55 -3 96 123 -28 -121 -3 -49 51 -38 -113 -20 77 -3 14 10 119 97 -55 126 8 -58 95 68 110 -94 67 -100 -55 10 30 -55 25 54 -24 -69 -30 -87 -28 -19 70 51 85 -119 -104 120 110 120 0 14 77 -25 -2 -50 -26 39 -33 107 -101 18 -74 -76 -11 -60 18 -3 122 58 116 -128 -22 -41 108 -114 -127 25 -35 125 -34 -94 115 53 -8 83 -122 -71 10 -118 -70 108 25 32 -109
-45 -102 20 118 34 123 -31 -104 59 -27 -80 28 -16 75 -100 65 -127 -59 -107 -63 73 17 -87 69 -37 6 -126 27 -95 70 25 -7 125 -118 123 35 94 12 33 -119 1 9 -52 90 83 54 26 96 -63 9 13 -78 -3 -47 -121 103 9 38 38 -11 -52 -102 -25 43 66 -13 -20 -22 102 -115 -66 109 -96 90 2 125 -60 -52 -66 -10 70 -37 -45 -42 19 120 -55 -100 -123 86 -18 -50 -38 -8 34 -65 -19 12 65 -90 68 -43 4 -15 -76 58 -97 -51 108 83 -70 105 -119 93 57 56 16 -41 113 20 120 -78 -92 -37 -101 97 40 -109
-73 121 101 92 -108 4 -96 45 73 56 4 42 -91 -110 101 -105 39 -80 100 -118 -69 46 112 49 -35 -123 -109 75 51 -6 -50 -30 -34 -73 25 -19 -24 116 18 110 70 109 10 -1 -3 -122 -95 -107 -110 -38 124 27 -87 -45 51 -32 45 98 -74 102 70 70 -67 -21 -64 29 -78 -28 51 -8 24 -94 -90 -127 -45 25 66 115 -117 89 -125 -64 -45 111 -13 60 92 61 65 42 -11 -124 70 78 89 -116 15 29 94 -58 -121 36 107 -57 26 -123 42 -65 42 -114 -101 52 60 127 64 -36 44 -12 19 6 79 48 44 15 20 88 127 127
16 -118 63 -6 -84 51 -36 -84 56 78 -123 95 -120 102 50 -80 -33 -89 -55 36 -33 96 -62 -10 -87 75 89 1 -84 -122 -121 -4 42 -58 -110 -38 -127 68 -49 -28 120 -104 2 74 -34 100 -53 127 -17 -8 -79 125 106 33 -82 -98 -49 -64 86 125 -116 122 -70 -61 -2 -65 7 67 -44 -71 -69 84 71 -73 -112 93 22 6 -104 39 -47 -92 -120 110 112 12 89 91 53 49 -68 73 109 114 -114 48 -9 -53 -123 -73 -97 97 -54 -59 -105 -83 47 -13 68 -87 -18 -36 -95 22 93 -29 -74 -3 100 25 101 73 89 -9 48 -124 -41 -26
45 -85 73 60 -89 22 -26 -113 -80 28 48 -98 -19 -105 63 -77 -20 -104 61 34 -101 -60 -27 -59 67 76 46 27 79 25 -103 -34 -101 49 126 98 66 110 38 -95 -60 -1 -41 118 82 -35 38 7 42 49 19 -97 79 -14 5 17 -7 -89 55 -95 6 87 -120 -80 -84 5 0 83 13 8 43 110 114 31 -95 40 -91 108 77 127 82 -45 -5 -5 -95 114 -127 -24 -40 -116 20 8 -49 88 15 91 -54 1 -36 1 -29 -76 97 28 109 -93 31 -60 119 81 -112 36 -37 -35 -30 120 12 110 -69 63 -108 -31 16 -75 -97 -67 -91 -114
-56 43 8 81 94 -89 18 -87 7 86 42 -79 78 79 97 -46 -126 22 -108 -22 119 -21 -15 16 84 111 -68 -101 40 -122 44 -75 -103 -78 -56 62 99 106 -20 -85 -81 17 -117 92 74 -22 -76 125 -128 -89 66 -121 70 102 60 -102 -50 -5 72 120 -125 63 41 -13 -63 56 -71 90 80 -89 -29 -96 55 78 125 52 -82 69 -21 112 -120 105 -86 -113 16 -128 -67 -104 -126 -44 -42 -59 78 -71 -16 -112 123 122 -125 90 75 -63 -72 -30 -88 7 82 102 -1 90 62 -6 -114 -71 31 -127 26 -38 77 14 60 66 118 13 -46 -49 -123 93
66 -68 81 82 57 63 49 -116 -109 17 -78 55 -29 6 35 -101 9 -80 -62 -63 127 -113 88 -9 -35 -8 -116 23 -93 105 66 54 58 92 58 -54 98 62 51 83 -114 75 86 -54 -127 69 -18 -45 114 73 -101 -33 30 1 -64 -53 -112 -128 -17 67 106 37 88 38 -10 113 -65 -70 -20 -73 -105 -23 24 13 111 21 68 -17 -26 71 88 23 -108 78 71 71 64 -38 32 -2 38 107 -117 -18 16 -97 -71 -80 -3 42 19 -42 59 2 124 -66 -117 75 34 43 -82 -109 67 107 99 -100 127 113 21 79 4 -32 8 2 92 125 -86 81
109 67 33 -124 15 -46 -74 58 -59 60 -87 98 117 20 24 -16 -103 -1 13 -10 82 26 29 50 50 -53 42 29 27 68 -49 -25 -16 93 -87 61 -85 86 70 -26 35 -93 -43 -92 -82 33 105 42 98 -57 -47 -51 122 9 83 92 49 -76 -54 39 -81 13 22 30 -112 -63 72 33 -46 44 -124 52 65 15 17 -49 60 -75 -125 110 47 -46 -48 -95 50 0 -102 5 8 112 -5 111 -92 61 -5 39 -118 73 16 73 69 112 41 15 63 -122 32 -109 -33 12 -121 -49 -16 117 -73 -24 23 114 -83 -126 -54 47 -74 -79 -113 -47 -81 -53
-114 58 -115 114 118 -76 -23 77 -33 -74 -82 43 67 -128 34 125 -50 117 52 -127 -99 108 13 -109 -114 -24 -68 -123 106 82 31 -69 -117 58 -6 59 -19 -80 4 101 113 -25 -123 -57 67 49 80 45 -78 -59 86 92 57 -97 -92 124 107 -84 -85 -77 -117 -121 94 52 -34 28 28 -13 -42 -124 -107 -40 79 -21 -5 -13 -82 -4 -111 -84 25 22 100 117 -74 -81 -118 68 -70 23 126 101 119 -6 48 50 8 92 72 -41 -38 -60 -71 57 -113 44 -72 -46 -9 70 -40 99 104 -106 -119 -45 -23 -37 6 -83 89 -33 -111 87 102 -49 50 52
-23 9 63 79 119 -84 -36 -113 125 -55 -74 -14 -72 -78 -88 -110 -24 -128 32 -125 -17 66 78 -36 -74 65 97 -125 -30 -24 -65 112 -96 59 -2 8 -76 115 32 -47 -93 -109 -83 58 44 1 64 -83 41 -1 -55 -74 -108 96 11 -123 38 71 -42 -39 29 60 115 -121 60 91 -22 -73 -52 66 -71 -65 -94 -25 -4 91 -35 -75 0 5 -117 -88 -95 108 -64 -60 -111 -101 -20 20 14 -18 84 -40 -25 73 45 113 -20 34 -100 -25 -43 -13 98 -42 -6 -94 105 28 -102 -43 8 -32 -83 -52 -40 -50 25 -59 103 -52 -60 34 -20 11 -20 -47
123 -120 36 -52 98 -123 -114 -127 -24 114 96 -97 -79 -107 8 46 -10 113 16 -68 0 -99 56 81 -53 -18 -76 -12 -7 -103 24 -104 111 -37 -73 67 -33 116 56 123 -104 -26 26 -109 119 -5 54 118 45 48 99 83 -128 67 92 0 82 84 127 -101 -123 -75 -27 50 -107 118 -31 -57 -3 -9 64 -38 -13 29 -122 -57 -73 47 108 78 -5 -64 90 -103 -55 125 -120 -88 44 62 23 -53 -29 46 13 124 76 77 -71 120 85 -20 -93 86 -36 -51 92 -73 -44 80 -128 -46 59 -46 -110 -108 73 51 84 -46 49 -111 22 -67 114 115 -23 0
-37 -76 55 64 -112 123 127 -95 73 -61 -103 -62 23 94 -19 -125 -56 -123 -87 -36 63 -68 -36 -122 30 -101 -50 -61 -85 37 28 -61 79 -101 -120 7 95 -10 75 25 -3 32 86 88 50 -81 123 29 -56 -7 118 54 12 -75 58 -116 -126 -5 -46 45 -16 -43 -32 61 71 85 -108 -66 -64 -32 -83 5 -90 -58 -20 -65 114 -37 63 -128 117 -37 -89 51 -106 -74 30 -56 -87 -32 119 -56 -58 67 -110 -17 -41 61 53 30 2 125 24 -103 -44 -105 77 123 -72 -27 23 67 18 65 -54 3 -67 82 -124 -12 -110 -118 -78 78 -124 28 -8 -93
-16 -118 54 52 -97 29 67 -72 -98 123 -6 -93 80 -81 -39 -23 59 13 -109 -58 95 -57 48 -87 78 21 -110 96 -58 106 -28 111 -42 41 33 1 13 -59 28 36 -115 20 71 25 -81 -60 34 50 123 25 54 92 116 32 -57 76 103 65 -26 20 117 124 32 -73 63 -39 42 52 42 105 -46 -51 -57 -64 -27 116 7 -124 14 -66 1 87 -8 -82 -53 -93 -2 98 24 -54 11 54 -78 -23 -106 -126 -31 -28 -72 -3 100 -117 -82 92 -41 -113 -115 16 -8 38 -47 117 -61 23 126 -89 83 -72 -75 -19 20 84 74 -10 4 -107 -77 22
0 -41 47 -70 76 -4 47 115 28 62 111 15 -116 -88 -28 37 79 -9 37 107 54 49 -12 34 103 58 -87 -59 61 87 -61 -69 -30 96 -49 89 -27 45 121 33 -28 106 -100 59 49 40 -86 83 -66 48 93 73 27 -92 44 114 92 4 56 7 82 -52 114 49 -82 9 -86 -116 31 -88 45 -127 46 -67 111 50 -34 -22 -6 113 -119 -13 -42 7 95 68 111 118 32 -98 -99 -45 40 -85 88 -79 75 -52 35 48 42 -64 85 28 27 -116 -43 6 -76 -42 -67 83 -20 -123 -88 68 40 113 86 -7 9 -108 71 94 -73 -121 -12 -52
108 -91 55 64 63 68 -108 117 95 14 92 -65 34 -6 -105 -95 -69 54 -107 15 -118 -44 -13 -98 -120 -44 78 76 -40 -128 -41 19 111 103 -98 109 17 4 -29 88 106 -69 -103 -27 62 19 -5 -23 -88 -97 42 29 101 -120 -101 98 61 38 19 -3 50 -26 63 -105 -102 94 -77 -8 -43 40 116 38 -45 51 36 27 -77 -126 -107 -82 111 -75 -128 -89 -122 75 74 -26 -83 105 88 -31 18 -47 43 -42 -21 -71 13 -110 73 70 108 21 62 64 -84 -48 -91 40 115 -5 55 37 0 -41 -77 60 -79 22 -121 56 68 -117 -121 81 71 5
4 37 -104 -84 95 103 -39 76 9 113 40 3 15 -58 -89 -57 127 47 -104 -82 122 94 -29 90 52 106 53 76 94 26 63 83 -11 126 -47 -107 -75 46 30 104 122 -68 -84 32 -61 14 8 54 -121 -111 115 -18 73 -80 -127 -10 74 19 95 -17 -110 -119 70 47 -47 47 -32 -37 -42 74 -45 -4 -52 25 76 -57 24 78 -62 -16 -124 37 18 60 -42 69 -66 25 -112 -122 56 70 -121 104 26 -120 66 -10 -10 82 -49 75 -42 15 35 54 15 -97 -83 -90 32 35 58 -35 -124 -20 34 61 91 -50 97 -112 -73 67 -23 -34 47 53
73 100 -35 83 14 10 21 -48 -120 -102 -29 -125 -77 -102 -81 62 -95 117 -106 125 -54 -90 -15 5 120 61 -2 22 -88 125 89 -7 -112 -12 10 58 32 118 -12 -20 -108 -89 94 -26 -1 118 -53 72 -128 8 -116 -28 -118 3 24 22 38 64 -73 113 -24 -75 -49 69 -112 34 62 56 -45 73 58 -4 106 -37 50 -56 -77 -23 7 -82 5 85 -126 -117 -26 12 -52 2 -9 -79 89 -14 117 -51 11 53 -100 -112 17 -83 -46 20 70 76 -33 117 25 14 63 -1 -123 -72 -72 83 -59 -28 -103 114 -59 99 -89 -117 12 66 58 16 -99 -7
52 106 -75 -53 54 -102 104 49 12 -117 -104 -49 59 -12 36 80 93 66 -109 -55 75 10 -8 78 -110 -27 93 -14 55 114 89 -19 32 26 -25 118 115 -122 7 -3 23 24 -8 107 121 62 -123 -65 58 106 51 -94 34 17 71 88 92 -22 -102 4 119 -116 -76 108 -115 80 3 -7 81 -68 -103 -126 -94 -75 -10 118 126 -9 22 -63 94 10 -25 -121 49 124 31 7 -124 6 51 119 -7 -9 119 40 -117 40 124 -77 7 18 -93 104 -108 -115 -26 -39 -85 69 50 -1 -70 -35 -123 -66 -13 -50 -7 -115 -25 0 -49 -94 -63 -30 -13 22
91 116 65 -87 -116 -32 115 10 -15 122 -12 -65 -19 63 -42 37 43 98 -71 -100 -62 -112 23 5 107 8 69 -61 8 -82 7 81 67 -71 -124 19 45 -3 -1 -117 92 90 110 -117 99 -75 59 65 2 -113 17 -8 -63 2 -41 -24 -41 -107 10 1 98 -59 -66 46 -63 102 -16 37 -80 -125 92 -66 -120 -74 -17 -29 -12 94 -37 83 -57 35 -18 65 -58 -74 58 -51 5 69 -90 -88 -78 16 -57 -70 -102 55 107 74 99 -63 -59 28 -41 -19 88 91 61 127 -28 127 30 -122 -64 119 7 18 77 -36 -127 11 96 -83 126 2 -32 25
-62 -106 -88 20 -75 -119 109 0 -90 8 45 9 79 -60 -57 -28 -76 -103 125 127 12 -103 110 -21 -39 113 23 -80 -63 -19 101 -66 45 -29 73 -55 -105 62 14 62 -90 98 27 -98 -2 -14 -93 42 31 -113 -84 0 2 -97 -56 -108 35 -95 -17 107 121 0 124 -90 -60 -66 -16 -25 22 -25 -37 69 -5 84 53 -1 35 -30 -102 59 -23 -25 125 92 94 -123 -49 -14 64 -72 121 -66 -37 -26 -77 -118 -93 -15 -2 79 112 46 1 -48 -73 3 -91 -122 -18 -39 -72 121 -127 61 -95 -45 15 34 37 76 13 -5 -23 16 -17 7 91 19
109 6 60 -59 -39 -121 24 -96 -104 42 -93 126 -62 108 -113 91 48 30 -15 -55 -123 -1 69 -51 -93 125 -29 -49 55 98 -87 -19 31 -51 -46 -38 68 -13 15 -42 120 -3 7 94 19 -81 68 66 -13 16 5 -13 -53 7 85 -75 -31 -10 -58 67 -90 -106 -11 61 53 -16 -59 62 92 26 85 -51 51 -22 -101 -23 -24 -27 57 -45 -87 118 -15 -71 48 -4 34 100 86 30 85 -44 -127 64 -13 12 -25 -85 -32 99 -5 -128 -43 -60 12 48 5 -32 -47 -124 -86 -82 -1 118 121 -94 121 -102 -100 -56 85 -122 52 49 -32 27 15 106
49 104 97 -47 53 -76 54 84 105 -21 27 -97 -6 62 -56 -32 114 -41 -94 -58 -20 12 -82 -88 -38 106 53 -22 -30 100 111 77 72 116 -107 -2 -17 77 55 -120 -36 -86 -128 -54 95 52 52 53 -109 -95 -78 -113 -1 102 -120 63 116 38 51 -122 -19 115 35 54 8 109 -77 -88 81 81 113 100 45 32 -8 116 -74 -81 27 27 20 120 -3 -90 84 -38 9 -61 98 79 -75 40 -81 -5 -43 -95 -110 90 -128 -7 -32 49 36 64 -123 -20 57 -58 110 -71 -64 12 -1 -125 -66 16 -86 -113 -102 45 -52 -18 -57 -37 -1 88 -72 108
-57 -56 111 -25 75 19 -74 77 40 59 -35 -15 -70 -4 -50 106 -62 -82 -127 29 64 2 -110 24 65 -104 90 -128 81 88 81 90 -76 51 4 -90 -10 -100 -7 -90 -119 1 28 -118 -59 -4 45 -99 7 -24 -57 -40 -41 -91 83 68 113 -78 23 -23 -42 -46 110 41 -82 57 78 71 -97 -92 -5 51 -108 14 51 -106 84 112 72 41 -113 103 41 -11 109 74 80 -35 42 -83 82 -21 39 59 -62 -64 -21 -5 111 73 -95 101 104 -101 102 44 -93 -3 -55 -27 -71 100 -8 -24 -18 123 115 65 58 -114 -37 -22 127 5 82 -16 63 4
-41 92 31 86 88 -114 87 57 7 58 18 -3 -106 -57 32 -27 -82 -54 -102 -96 -85 91 -66 39 -73 -8 99 -19 47 38 -26 93 109 -26 -11 34 50 16 11 97 115 93 -119 80 -5 -61 44 121 71 -23 -46 -75 63 119 -42 -97 45 107 -20 -11 35 98 26 5 -84 46 126 127 57 118 -16 10 -30 66 -30 44 60 -102 8 -8 102 107 79 -53 -119 72 -56 38 -104 7 57 -53 66 -74 -15 -28 -15 96 -57 92 22 -25 89 40 -83 -7 30 -83 51 89 49 -95 -63 127 114 -66 44 99 -38 74 -66 -52 -118 69 6 -105 -125 4
77 14 -2 4 -25 -18 -33 27 123 -100 54 -71 123 -117 -109 -48 -82 93 74 94 39 -79 -51 -114 124 35 96 116 -75 88 8 117 -17 -6 -36 121 54 -118 125 -66 55 -19 -104 70 127 108 30 -86 11 62 98 -36 52 -6 -79 30 105 -93 -24 32 106 -76 2 -110 112 112 120 52 23 113 75 -20 -49 44 -69 46 -80 -60 -35 -30 -10 110 -45 52 -45 -104 6 -126 -100 81 61 91 -120 74 -87 -68 35 -36 2 34 -47 62 24 42 -128 -117 -100 117 36 54 33 116 -64 -121 74 75 26 28 0 52 42 -2 -26 55 36 -51 69 -13
-37 -34 -19 7 62 -103 -71 -126 59 87 113 7 -81 49 22 -87 29 97 8 22 -63 31 -102 118 59 -124 15 54 -83 -123 86 105 39 -33 8 77 54 -121 44 66 -72 62 67 31 98 116 -47 -76 12 -24 12 -39 -54 -68 -110 -58 25 32 -9 119 -78 27 62 -52 -16 53 31 13 65 54 -53 -12 -31 19 -89 118 -64 -79 98 60 75 -128 -96 20 -3 -42 6 79 -2 -31 -15 96 25 -89 -101 -113 -31 -77 -97 -98 -75 96 19 -66 1 25 -68 -19 -32 32 -50 -54 24 36 -109 -68 -53 -122 -104 -128 -63 14 -81 -12 108 -16 -34 117
23 -22 92 -57 -67 -27 85 39 83 -21 75 -63 15 35 0 11 13 -99 96 7 122 -53 -23 26 -6 88 -21 119 88 -61 -89 -46 -120 -13 33 77 122 24 -62 109 62 -7 72 82 57 14 -18 -41 117 -26 -80 -53 112 78 14 -117 -31 -15 -15 35 -81 76 -27 -50 -99 123 -106 -87 19 73 -78 -123 124 -93 -23 61 -65 -12 77 -20 -100 -36 63 103 11 84 70 -11 2 122 -113 -95 -116 19 -99 91 -42 76 -3 -116 -32 -36 -77 -102 -25 -96 79 68 73 107 59 59 87 1 36 -126 55 -92 69 -108 -113 -71 41 47 -35 77 23 -94
-43 -15 -52 -121 -31 52 18 -78 -4 107 74 -34 101 37 -22 -113 -53 77 -97 106 33 -83 -23 -96 -91 -83 -26 -123 -57 -12 -43 -89 17 -120 111 71 69 -77 -15 114 -19 -51 -3 -5 -114 102 110 95 -126 24 44 -119 -115 58 -6 -43 -110 -89 -19 118 54 -7 10 92 -2 -4 -40 -14 97 -51 -18 0 -47 43 89 -63 -26 38 -24 121 1 -48 -36 -61 -10 -78 15 -103 -73 40 93 -37 -95 -58 94 80 -88 118 124 13 105 -90 -53 -24 115 53 84 -39 76 -70 66 70 -122 95 100 29 -13 103 -97 11 -75 -116 66 -17 19 16 -69 9
41 -59 93 23 81 109 5 -30 33 -46 95 -127 21 -87 22 55 33 100 43 73 -12 78 -64 -59 -2 -38 75 90 41 -49 56 71 106 119 -70 -45 49 -31 -68 -32 93 25 -47 103 -20 -42 81 82 -3 85 108 72 -15 39 15 -65 -70 -23 18 16 -109 115 -66 52 -122 55 44 4 109 112 -76 4 -126 -69 -36 -99 -36 -109 -60 -121 37 -76 60 90 100 -82 65 8 -119 -2 26 71 -41 -66 -86 109 1 -22 -28 -104 63 -80 -111 14 18 71 -67 -57 -41 -21 -32 107 -43 -127 28 52 -113 22 -47 -85 -32 -55 28 0 -13 15 101 -65
-36 22 68 81 -2 116 -45 48 56 -124 -6 -41 122 -50 -72 13 -115 123 -128 -70 -64 -59 -58 7 -4 70 -50 83 -119 -126 -64 40 66 -36 10 -42 21 -67 -16 -35 57 -88 -120 -6 108 -56 98 -83 -93 -127 -11 14 -63 -31 -12 -32 64 50 115 123 -25 -122 -29 -122 12 -13 124 53 68 -96 -29 -38 -69 49 -37 -97 36 -102 -25 50 -63 -2 92 -17 -27 85 120 91 -67 3 83 15 -96 102 -9 80 43 -9 13 -39 -77 121 -19 -33 -21 37 69 101 80 0 43 122 58 66 107 116 -25 -50 -3 118 -22 -24 43 -94 26 -123 -40 19
45 -52 -4 104 -43 -68 34 -10 97 92 -51 92 74 125 115 -39 -120 71 -92 102 127 -11 99 89 -19 91 78 -10 52 -65 81 6 -94 -89 32 -80 43 24 98 -104 104 -93 116 64 13 -69 9 -49 51 -62 -45 70 -122 70 -11 -42 -64 76 16 2 -103 92 68 28 -49 -21 -56 -19 -75 95 54 19 38 -65 -105 -119 -104 -82 42 25 -92 47 -44 54 101 -6 65 72 67 127 72 -105 -57 85 -48 -64 -92 20 3 -121 -30 -85 101 67 -37 -24 40 30 20 -84 -98 -26 0 41 99 -118 117 41 -11 77 -113 105 -109 -73 -46 -39 -99 -123
-80 69 -101 -124 34 -84 3 33 -66 -97 -4 -111 16 -31 -16 99 -91 49 -109 -54 -26 -64 79 110 -88 -54 -40 -28 82 -103 78 -118 36 -113 10 101 14 -5 -27 97 70 -76 126 56 100 40 86 -28 -117 88 -41 11 -125 -78 118 -35 40 4 -10 -16 58 -115 59 -34 7 64 33 119 -58 -93 -43 5 28 72 -41 -114 -48 -102 -122 17 -119 -51 114 -29 -100 27 96 106 -88 3 -91 31 42 37 -5 106 -51 -96 42 25 -33 120 -20 -69 -49 -80 -100 -42 -21 -128 -114 -38 101 87 37 -101 -64 -13 98 -85 -69 -40 67 -20 -14 -99 -86 -33
18 -85 -7 -66 -36 2 -125 104 -85 85 22 -10 -82 74 33 44 -40 60 -82 -93 0 -111 -24 -29 37 -119 117 -6 125 20 -41 -110 -27 -52 -15 113 125 -123 -103 100 -101 51 -43 -93 13 67 -1 -31 -84 -86 92 112 14 52 -43 -127 64 -3 72 -16 -2 39 -111 -9 -14 -27 27 -48 -57 115 100 -80 49 84 -103 37 -19 17 1 116 -24 -48 28 -86 62 67 -89 18 -102 -14 -9 51 81 92 -85 121 -46 88 -114 -18 90 -100 39 60 -66 -3 -16 46 48 76 73 -92 23 -92 -36 -7 118 29 4 -124 -13 56 -34 -51 9 -125 -70 69
11 10 113 22 -79 -56 69 90 -117 63 100 -77 -72 -47 90 88 126 102 -111 -66 -41 78 -106 -92 6 74 -103 54 22 18 -55 -103 -98 -37 97 -44 103 -80 -126 -119 31 68 77 121 44 -7 124 105 9 25 -74 -30 -75 -38 48 -1 -34 -54 3 -101 41 43 67 -108 126 88 -62 -46 104 56 -96 114 64 -23 -105 -37 123 9 -42 -22 -81 -70 110 122 9 -1 74 49 21 -115 -40 19 -117 -122 50 22 15 79 96 -88 85 19 -83 -80 -39 114 45 120 92 -103 117 -67 8 -101 -15 83 54 -31 -97 52 -97 107 -2 126 103 -17 -56 -84
-103 -93 47 105 -35 106 48 -82 89 -68 106 -63 -12 -31 23 24 65 88 -6 17 113 115 -54 -115 75 -91 35 55 50 -68 -21 22 22 -83 83 -43 -1 -47 -27 -24 24 -1 63 -31 -7 5 69 -110 -29 -58 49 -11 21 87 -41 70 -98 104 -25 -92 22 92 122 68 -120 4 89 -112 -30 114 -50 55 7 20 64 0 96 109 119 88 96 58 45 110 96 105 -118 60 100 -27 -127 -102 -35 -90 -55 26 -105 -32 -84 -22 -63 28 103 82 -64 -11 26 -69 -48 -30 -21 122 75 70 -47 -13 -43 31 -109 -125 19 93 -34 -88 -18 99 -42 -98
10 51 -39 -27 2 -52 -29 -53 -65 115 26 -94 -83 69 41 116 127 -82 -87 -20 24 104 -31 -27 62 -61 -7 -22 49 88 -43 -22 -50 -14 58 35 -59 89 36 116 -39 0 84 117 104 117 -60 101 -119 61 118 -38 -115 -70 -53 -116 46 7 94 -15 106 89 40 -103 -54 53 -112 -68 63 -88 -126 -90 75 86 -118 45 86 -71 -125 -102 -75 80 -34 -54 -18 17 -121 -74 121 -5 -54 -32 -42 -78 -105 70 51 -121 100 67 123 -41 -105 -66 -64 95 46 -124 113 44 5 117 18 4 91 98 25 69 99 0 22 88 -109 31 -30 -51 -68 -85
-29 -110 -66 -74 -17 -114 -82 73 -1 102 85 25 24 -8 -5 -44 14 30 -6 -73 11 85 -76 -119 127 127 -128 31 -18 78 -39 124 -41 -6 93 86 86 -77 -106 89 -93 -112 48 96 -70 -26 -99 93 -75 -72 -57 -53 -90 -45 -3 -25 94 -15 116 116 114 125 65 -4 -44 -51 57 -7 -8 -18 34 46 15 114 66 19 71 54 97 -112 64 119 127 116 -4 -43 -114 -40 -7 47 17 119 -2 112 -45 40 35 -113 69 -111 120 91 -41 -23 85 -33 81 -27 73 49 -87 18 -67 21 -43 102 62 95 -90 -53 -38 -68 -46 64 -42 -91 1 -110
-102 68 -90 -16 -64 -49 -1 24 -102 -32 -17 89 82 -82 43 37 92 -29 -115 49 69 -6 -114 83 80 -84 -109 99 74 15 71 -8 34 -47 46 -53 47 -56 -7 31 121 4 -52 76 98 52 86 105 -68 36 66 0 18 -105 83 33 108 -85 18 1 -120 23 105 -50 -85 -50 32 -61 -6 119 -93 -95 106 -16 -36 -26 -36 72 -51 -113 -52 94 -69 -122 -120 90 27 61 26 -19 -44 22 -69 -112 -117 -89 4 33 32 -87 -69 -15 -61 -18 -98 -78 -84 83 23 60 -91 -11 -23 104 -31 43 -7 79 -17 8 -57 -94 10 -28 5 -51 107 68
-73 8 -16 -44 114 -57 -62 2 -12 -14 101 11 86 -73 30 40 97 -27 94 110 30 -75 100 32 -7 0 17 -6 12 -69 118 75 -52 105 1 -11 -113 -103 6 62 -84 22 90 4 123 -48 -23 40 -120 70 -106 40 -55 -53 -78 55 13 67 -65 -90 -22 10 -61 100 73 88 67 34 -75 -63 27 119 72 -98 104 -85 41 39 40 -80 53 -3 -9 -113 -79 59 -68 -101 121 52 -48 -98 -82 -2 116 -50 30 -18 37 126 -9 83 -1 64 108 -126 13 -80 15 -35 11 37 63 -87 105 12 127 99 -83 -34 -113 -113 -109 -77 -118 55 -87 -57
33 119 103 -43 -107 94 -42 -11 -125 -126 -92 -33 29 -60 77 -95 -5 53 -96 22 -12 83 -80 -94 -4 -20 -59 43 -32 30 -76 90 61 119 -66 -34 -59 -101 -83 87 -52 95 83 82 -55 -123 -12 18 0 -5 5 77 66 -42 -98 -100 119 37 1 123 -32 94 77 89 -9 65 -50 -65 -121 -117 82 -59 87 43 19 36 -62 -6 39 4 66 -48 -103 -110 85 -110 -2 -110 31 111 21 92 -71 101 104 31 -126 60 -66 -110 -57 126 50 71 8 30 -117 108 -2 -96 26 -123 38 103 -86 -13 -25 -33 -9 -102 -38 93 50 55 75 109 -27 70
-104 -127 -20 -59 -59 -127 -18 -67 -55 -95 -112 -2 120 7 113 115 -18 113 47 -15 -80 -77 76 -9 17 95 -58 49 58 -36 -37 18 -106 66 106 -124 46 70 71 39 43 -128 -83 -56 -89 36 7 -108 68 -90 -13 54 58 108 -87 60 -82 120 -13 111 -107 -40 84 92 -82 114 72 -103 88 72 5 -50 -80 -94 -48 -53 112 89 15 40 12 -113 -39 17 120 1 -104 -19 -95 -106 -115 -86 -63 61 79 116 -18 -83 116 -13 52 -71 -25 102 -13 -68 -74 126 -67 110 20 60 65 -33 -95 115 72 -35 -40 -40 -94 -119 32 83 0 -51 -2 21
26 52 -12 -44 88 94 -124 -95 -109 19 -69 -100 11 4 113 -106 12 36 60 98 -4 10 33 -73 -104 -29 118 -48 85 23 14 -9 97 -69 63 59 -5 -70 -110 -60 52 84 43 32 74 -7 -64 -70 10 -17 -23 63 17 123 35 21 -31 -30 -30 108 -23 50 99 50 -22 -61 2 -121 -11 27 -109 4 -119 -76 114 31 -107 33 12 65 72 -52 -55 21 -36 23 -62 73 110 115 -93 76 85 -118 -9 -101 -107 -123 -114 68 -102 58 1 17 69 -124 -45 21 -125 -83 -9 -32 -100 -80 -42 40 21 78 102 -111 -75 27 0 -97 -3 61 -79 89
114 -97 -116 -47 62 -22 25 -45 58 -4 -18 -89 7 -52 38 8 51 -64 21 81 119 -57 -95 28 -49 95 -49 125 -19 110 -64 108 -13 -120 -34 -89 85 -120 46 83 5 -51 -118 -63 32 0 -30 51 -5 -63 67 16 -46 -28 48 87 108 -101 46 11 3 -89 -65 -109 -25 -51 30 96 29 30 87 -67 26 -117 48 79 -69 44 5 125 -90 38 11 -56 -30 -109 -78 58 118 -99 -19 -33 -60 -3 -6 -109 -46 -40 -44 19 -21 -86 71 81 0 3 -56 62 67 91 -90 -67 -10 95 83 75 -57 19 -35 -81 -60 6 89 29 -39 -25 -9 -56
15 55 114 -59 -104 92 92 -83 -113 10 18 124 21 -61 105 -61 -110 123 73 25 10 29 75 126 -118 -12 43 58 -76 70 -10 78 100 73 109 -106 93 118 -97 -99 -94 -35 84 -59 62 70 38 100 -111 125 -40 -89 119 60 -67 8 -87 -127 -6 127 -120 105 -79 87 -46 -74 107 6 50 52 -51 -121 26 112 56 -44 -116 90 68 -80 -122 -121 -106 -114 -39 -6 -74 -100 106 -55 95 36 28 -116 90 116 97 45 -24 -79 35 48 27 1 -84 39 40 -23 -41 -74 -14 22 73 92 70 42 -72 -119 3 -38 76 58 40 28 -69 -7 117 -2
-45 -71 88 -96 29 20 79 -83 -110 59 92 117 113 42 -24 -6 -42 -7 66 3 1 76 101 87 72 54 71 -51 -111 32 -101 0 -68 -113 -121 -38 -86 98 -45 -90 28 -103 4 50 63 -124 63 70 -39 15 114 -124 31 77 -77 60 -77 -4 -71 61 117 30 65 -63 98 -123 -42 63 -21 65 -125 -128 -119 -51 -33 -57 -110 93 -98 -27 40 29 103 8 -70 -41 -118 110 43 19 -96 -50 127 -101 -37 89 120 -4 -57 8 76 -77 56 -55 117 -64 123 -76 -78 -26 2 120 34 -125 57 -71 120 60 -68 22 -95 69 69 -106 -128 93 76 16
40 -7 12 -41 -109 103 -117 76 6 -33 -108 64 8 116 -120 46 9 104 51 -75 -97 17 15 86 -63 -21 -39 -112 65 -69 55 -52 79 -63 36 106 -63 -95 73 -24 97 13 2 -47 39 -64 -105 -111 -62 67 -116 -53 54 -70 -91 -46 48 -87 -80 101 71 19 106 -23 -15 -92 -27 -121 72 -112 -24 61 -33 -46 -19 -76 -28 -92 59 8 12 36 61 91 87 53 85 108 10 39 32 -102 53 75 55 -73 -72 53 -51 70 34 113 -89 21 -56 -17 41 -33 11 12 38 -6 116 37 -42 -111 17 122 -126 -41 -25 -128 -31 14 -100 -67 86 -20
45 -5 124 44 67 -51 -53 82 81 -41 -36 -98 18 -67 76 69 -51 -115 100 -116 -28 95 -69 14 -53 80 -125 -6 -74 98 35 65 -20 -9 10 99 -62 -51 -80 -116 18 100 23 -55 79 113 -119 -77 66 67 -66 -16 -127 -36 -82 31 -88 -33 -92 85 112 -28 -54 87 60 83 -53 -24 -105 -113 56 -70 45 38 5 65 -98 53 -41 16 -96 -112 -99 -124 -90 21 47 -13 -108 -63 124 -43 120 1 -92 -58 -100 -102 79 43 112 -120 -49 -44 117 -113 -107 55 15 75 90 -103 -112 -80 -18 -90 -119 -67 -97 -42 78 -104 -16 110 83 68 -82 95
-128 114 -71 83 -128 52 50 22 115 7 126 -22 -29 69 -120 87 -75 -27 35 -124 58 -66 -5 105 -15 -56 92 -22 -31 100 -68 -40 61 60 -113 -61 60 79 125 -80 127 -78 53 -55 -32 -54 104 -9 -102 43 -38 -5 55 38 114 111 77 -3 23 -61 -21 -5 -41 -125 31 -38 -33 126 -121 -30 -7 116 62 -13 27 -118 74 -126 77 -76 46 127 -106 -119 -53 -63 -127 14 54 123 -104 -102 -41 -110 -3 -124 121 118 -31 116 65 76 29 0 60 -106 11 -50 -30 116 -20 74 59 72 -2 97 -73 11 -65 122 55 -35 35 15 -32 87 89 -115
-110 60 85 73 10 94 14 -11 -120 46 -30 -18 90 15 -30 63 9 21 76 20 -121 -108 18 45 -21 -67 -18 -69 107 -7 -73 11 88 60 -30 -83 118 -8 82 -109 12 -108 80 11 52 108 -88 25 47 102 116 -35 -42 61 46 -110 103 46 98 101 -22 -70 50 -119 -112 -69 -16 -59 97 108 9 71 95 115 -48 91 -22 -59 27 113 22 -15 27 34 45 19 -101 22 -70 -24 -91 -15 -95 79 -119 -67 94 8 88 35 75 -93 100 -122 -120 -42 -85 -5 -101 43 -55 15 127 118 44 -124 12 69 -115 60 -25 -109 -68 52 -123 -93 86 -86
-6 36 69 87 100 32 -69 45 72 -118 31 94 11 -13 7 29 -11 17 38 -67 104 -42 16 91 -4 18 -80 98 -126 -24 100 -91 66 -3 -126 -100 -93 -67 75 -34 -48 104 -28 47 32 -19 -74 26 111 127 52 -104 116 -94 -24 40 -63 -92 -40 -13 116 -19 25 -3 -45 -118 -52 -39 -31 -17 -39 -87 -7 -47 30 124 75 71 -119 -29 -14 3 -64 31 31 -44 -102 104 -95 -89 111 109 73 -123 -122 70 4 -54 13 115 101 8 45 -84 -44 88 101 -80 121 43 52 -100 -45 -54 -74 48 -30 109 -117 -72 1 102 -2 -98 -46 109 -6 -10
62 16 -120 -121 3 55 -89 -105 72 37 115 -11 114 -90 -61 -31 101 -45 3 86 -117 -127 71 64 -17 -9 37 73 -56 52 -114 -98 34 -28 -33 -66 -58 109 -34 -28 39 -11 -70 44 -113 -34 -78 -81 13 112 -88 68 -111 8 13 27 86 -21 -81 -12 52 -73 32 51 116 103 19 -6 30 19 -63 -73 -58 19 18 72 -94 41 -22 29 -18 -3 21 2 53 -54 -34 -7 109 -53 38 117 4 110 53 -42 -17 -58 -26 -23 32 -20 -122 -11 -95 94 42 89 121 43 19 -33 127 -78 -78 97 27 120 -100 -109 7 -17 -65 4 -48 -24 -3 -27
14 56 -3 -117 -60 77 62 -128 -10 -45 96 -70 84 38 -117 85 23 58 46 -14 -122 -26 -50 41 -51 -88 114 -6 -24 11 -47 53 108 39 -38 -109 15 -87 -18 110 -28 -43 -69 77 -64 56 108 -95 79 -61 19 55 -77 108 -83 -31 43 -77 28 63 60 86 -40 -6 -10 115 -118 -74 -42 -105 49 -121 -2 -107 96 43 127 -24 -123 -15 -72 50 121 13 -76 -22 62 48 40 114 -126 78 -101 -107 -37 123 113 -105 119 50 28 73 -58 66 100 -38 53 109 59 -7 -3 -94 52 -89 73 -9 -114 -113 115 -70 24 47 -36 -103 60 104 -23 -93
-122 0 -71 109 -126 17 1 31 122 -91 63 110 110 57 -82 113 25 15 -22 -62 117 96 -44 71 -43 -67 -55 -33 7 75 -88 -17 -55 -18 -80 -65 -58 -24 -127 -109 11 0 27 40 -28 24 47 -20 5 23 -45 8 112 6 14 -113 27 -59 -21 -89 -10 63 20 -121 74 -45 114 95 -32 -78 22 -97 65 -86 73 -112 -1 -35 12 -106 28 -68 31 80 16 120 -47 -47 -85 94 -114 12 -41 -127 30 118 -36 50 53 48 105 50 82 -117 -110 -57 42 4 22 1 127 -110 -73 3 67 5 92 103 7 -46 62 -50 -63 -66 53 66 12 -14
-17 44 -70 -28 -27 91 -31 25 53 117 11 -37 87 -61 -66 80 -44 106 69 77 97 119 -67 -38 109 -56 -4 -16 49 65 -34 86 91 -19 -6 45 20 105 60 -94 -66 60 102 96 -21 19 -67 -7 24 -118 -98 110 -1 20 -96 35 -99 -75 15 73 -111 94 48 -110 -24 -36 -22 -84 126 -54 -69 120 -121 -60 -110 -34 43 12 -87 122 -11 51 -46 -36 -4 -99 6 29 101 -17 104 105 121 -11 25 -43 13 -49 78 105 103 10 94 66 -64 -103 -42 103 -1 117 -36 -89 56 -85 -53 -64 -62 1 71 72 -120 -87 50 61 33 -96 112 -121
-35 -75 -82 121 -78 38 74 -98 -124 -24 74 14 66 14 0 52 46 -128 104 -2 7 -31 103 -47 57 63 90 -81 119 -29 18 -2 -109 -90 -119 -1 41 -95 114 28 -97 40 -12 -57 111 17 -33 0 91 18 -27 -66 -44 -112 -109 104 76 120 8 -46 -74 12 -10 -77 -61 -90 21 -126 -39 32 83 6 -27 31 -32 100 41 28 -18 120 73 122 65 52 39 34 61 92 50 -116 -63 120 -29 110 -31 -37 -25 -95 -22 34 82 108 81 -103 36 -64 65 103 52 -123 -102 15 -36 80 112 -62 74 -69 98 29 85 65 50 -93 104 -55 10 3
-77 -77 -12 58 -38 7 -93 -53 22 125 8 91 120 121 -70 121 -29 115 81 73 36 -99 -96 -47 72 -52 13 103 44 -79 105 -3 -29 -17 89 83 113 -4 83 -30 -72 -84 -2 -70 -7 -31 44 -121 -78 -74 36 23 84 -6 -80 75 -55 58 7 -24 -14 9 -40 -71 -83 -5 -83 -126 42 54 103 -45 48 -93 115 -26 -110 84 126 90 24 -121 69 -42 -7 36 55 2 124 -116 -108 -112 -37 -48 -56 -113 -1 66 -12 73 127 -30 -82 13 17 68 -107 -111 4 119 -33 58 85 49 -20 42 59 -47 -93 31 -14 -32 -23 37 2 -128 -84 -55
119 -57 -25 59 -101 -59 -80 54 25 -82 -4 -37 47 -43 -19 114 71 -126 -18 -127 -11 76 -46 116 -118 33 -44 -127 -41 19 45 37 -98 -108 -75 -93 52 107 -9 124 84 -79 -97 126 -10 -10 37 30 -121 -95 55 -61 77 65 14 -41 -6 -28 20 -35 -103 28 -55 52 -119 -125 -121 -1 -18 39 -25 -110 28 -31 -17 38 76 -116 -86 30 91 61 26 44 -80 82 18 77 49 28 -79 -117 45 -66 8 -6 37 -2 -73 -70 -53 -92 17 -19 75 -21 -94 -12 -98 87 90 92 -68 40 -96 -29 14 17 30 0 -22 -36 28 -7 52 4 -117 -96
-52 47 115 41 25 -63 64 112 -22 -59 7 -58 -22 -76 95 105 121 -66 -109 62 -5 -39 -123 69 -24 -122 127 116 33 -57 -56 -76 104 54 -100 105 -21 -36 -98 -67 122 72 -34 -84 -67 -62 -28 -59 -58 -38 27 -128 -94 -124 100 121 -80 67 48 21 38 -101 117 36 -80 -95 107 70 78 -84 -13 25 90 5 94 -27 -79 82 -85 -57 9 89 -48 -125 85 27 -62 87 -19 -83 16 -70 6 7 -20 37 -30 3 -5 64 -18 49 56 -74 -9 -53 59 -43 -63 -94 70 36 -22 -54 -90 -90 -73 81 80 -90 -39 100 65 -96 -78 98 119 51
80 23 48 -47 28 2 -112 -1 -6 15 116 120 -80 -66 -44 13 -117 64 -1 56 -124 -3 113 -128 28 83 -113 72 -89 6 -90 64 -3 -123 -42 87 77 -59 -56 67 -127 -115 -83 -96 57 -125 -123 18 -65 112 -59 -108 -37 28 -46 45 45 44 127 42 62 41 100 -117 59 -110 41 -120 -38 54 105 -108 70 32 -54 9 26 18 -34 99 -19 -71 47 120 -32 -11 100 86 35 80 11 113 27 67 -110 57 72 112 -45 -128 67 23 -6 -87 -16 -6 -36 81 -109 -38 24 -96 83 40 112 33 0 100 -118 53 60 -54 -30 120 65 16 -14 70
-42 122 -45 -3 0 -48 89 19 -83 -126 120 92 -29 -113 -92 -68 -76 -60 105 112 -28 127 51 7 72 -122 -107 30 -44 -115 -31 -24 -50 -124 72 60 9 -9 -117 104 89 36 -31 0 88 3 9 -50 -32 -50 -53 31 121 -102 -104 67 -100 -8 107 -121 31 32 61 55 33 54 118 68 -103 10 95 -12 -62 -78 -49 -63 21 101 6 -39 34 -69 -102 -90 107 -119 98 59 4 89 -70 81 -107 118 68 -115 -110 29 66 27 -34 9 63 -127 60 9 -68 17 29 -22 -126 21 91 74 -35 9 52 88 87 15 -104 79 7 86 -125 -123 13 -12
-71 -64 99 10 40 -25 80 -97 -6 -46 -105 5 90 61 -1 114 -114 18 50 -65 57 -45 127 -40 98 -36 -86 11 20 -24 68 99 93 -10 23 123 5 126 -123 -115 -96 111 -88 126 87 -9 -3 87 -123 -10 -32 -56 49 84 -52 123 -108 52 -3 -30 41 80 114 23 -44 78 62 -9 87 -126 56 126 11 -3 53 -87 -16 -74 -50 -97 43 -83 -31 43 43 -74 104 95 22 -112 22 125 -73 -26 -60 -91 54 -28 -48 91 14 19 -6 -9 -91 126 -6 19 33 -76 121 0 -90 18 -114 -72 -1 20 -2 69 -22 -102 43 119 -101 65 117 56
-43 -64 -8 -55 -117 62 -15 102 114 -122 -45 74 -50 -125 -13 -75 -104 -23 -35 -71 -81 -63 13 -104 74 -66 49 -20 -41 -91 -94 23 -3 -8 94 -83 92 57 -56 -79 -85 -27 123 -52 -43 80 -89 -58 109 3 -99 -79 -24 -68 -92 -81 -36 -86 113 73 -121 -74 -46 94 -30 -50 -34 -23 -79 6 63 34 -113 48 78 56 -83 -39 37 21 -65 -66 54 -55 -127 13 109 -84 -108 28 -29 37 30 63 87 -122 80 -61 -70 -62 -94 58 40 11 -104 23 -2 22 -24 105 67 11 -50 -48 123 43 38 -121 69 -114 85 126 -124 -32 11 43 -81 -121
34 54 17 -21 39 -78 50 61 -18 80 -92 17 -120 82 16 -46 -43 122 65 -94 7 52 50 -101 13 -57 126 -76 -106 105 -120 -34 -32 24 -123 -24 83 -113 71 33 19 7 -91 91 70 -92 -19 113 -69 -53 124 -55 111 -57 -31 48 95 -63 25 -2 106 10 -122 -113 0 -10 63 51 -98 -9 41 65 40 -54 109 -9 -22 116 115 101 -22 8 49 9 -35 48 -124 -68 2 -86 74 63 -97 -114 -61 -22 74 106 -21 28 82 110 -90 2 -97 38 -45 -21 77 -29 -106 52 67 38 -82 -48 62 88 -57 -21 66 -127 76 -98 -112 -7 41 -58
-20 110 61 107 -46 21 39 -37 -49 -48 -29 -109 78 -31 4 -87 126 122 -85 50 111 -15 -71 103 31 -128 120 -25 74 120 -119 76 -60 -109 -98 108 40 -48 -12 46 42 -87 107 -1 -71 45 -3 -114 -123 -89 0 -31 100 -101 -112 11 -77 92 62 -4 -24 -7 66 37 -101 51 -83 -112 125 -122 -61 -66 -1 116 -123 30 54 1 18 -75 99 -75 35 90 -9 -105 23 -46 87 -126 -51 -28 -126 33 33 12 -8 10 107 24 -44 -84 121 -62 -109 83 -45 54 -55 93 -22 -103 113 117 -36 125 -67 -20 -92 -19 -26 -104 -79 121 84 -37 75 -102
109 77 96 69 -5 -77 -61 127 122 -110 62 -15 121 -66 -122 1 47 -11 -21 -55 -113 111 -16 -103 127 122 88 41 41 31 2 103 109 76 -66 -89 -20 121 -8 80 33 46 -56 -25 55 -39 123 11 72 -11 -1 -34 41 -69 -80 112 10 33 123 95 0 -62 -105 -8 46 -83 82 -77 67 -19 -33 39 18 87 -108 -3 18 53 43 -70 -118 -92 -66 -110 -121 54 -94 118 -65 -13 75 -10 -108 -57 78 60 -116 17 103 -84 81 109 -60 -33 -61 103 24 -104 71 26 109 -124 34 -94 117 18 14 47 1 -58 -61 -65 52 118 94 58 36 -113
98 -20 5 -23 -14 -106 100 -110 -14 -13 -30 56 -26 52 9 -51 13 40 55 -3 39 46 68 -97 -57 121 -69 -52 43 121 14 -95 -95 30 50 -58 -30 -1 49 -88 26 73 21 120 73 94 98 14 -84 -31 -17 -33 -57 -94 111 120 81 -78 118 58 50 124 -41 -107 117 60 -18 -39 -3 -18 -105 -110 -67 13 -88 97 -100 -114 92 -110 88 -63 -74 81 123 16 -114 66 -2 -31 -14 94 97 -6 1 111 59 63 -80 -14 95 -113 21 -106 -74 -12 61 -104 97 -112 -56 -81 -69 64 -113 -61 -92 -7 76 105 51 67 -6 19 -47 79 1 -33
0 19 -6 -37 0 -59 -82 -8 -78 -106 41 -4 60 89 19 -94 -33 -97 -102 47 117 -72 -50 -4 124 43 29 -86 46 -102 -8 89 -26 -87 -2 7 -15 46 19 -56 -10 -69 -102 -38 126 -41 -99 2 -13 110 127 -40 -61 -69 10 63 -98 59 34 -37 94 -49 -119 7 -15 110 -57 67 15 -11 -65 -49 104 121 -95 -110 -10 124 53 103 -24 -97 83 76 32 -80 -56 -87 59 43 97 99 -21 -125 101 62 77 -40 -37 -82 -56 24 -117 -48 -4 59 -44 -123 123 48 126 3 21 -18 -93 -78 -48 58 122 113 63 -1 81 85 94 119 -3 98
26 95 -6 105 -94 -67 -34 108 111 99 77 1 52 4 -91 -43 17 118 32 93 -128 23 58 -113 -99 16 86 -10 116 -65 24 -2 -53 29 122 -36 -51 26 42 13 14 98 -7 -30 -30 -66 33 92 87 19 -103 -74 -118 -31 -66 109 20 -30 -5 -23 60 -20 -18 12 16 88 -101 -83 -73 61 80 61 -110 -5 -68 -82 -121 43 4 -79 -32 -8 35 9 -45 -123 54 -99 95 -107 25 -44 -29 -104 -64 19 36 -71 83 -103 125 120 109 -107 -2 -113 31 99 -80 -18 110 64 104 -58 -67 -15 -119 -65 81 122 -118 80 -4 -79 44 42 61 74
23 -98 88 87 -97 -118 -21 63 -26 71 -68 -126 -105 -61 -76 19 -115 7 -101 24 -112 -47 -102 91 106 -95 -128 9 81 120 -114 -53 119 2 -84 -12 54 39 70 -38 -102 82 4 -102 -81 5 -102 54 96 18 2 -102 54 47 -8 -81 -106 -51 -19 5 -20 67 -88 -58 46 57 -21 13 -116 78 -19 69 22 -34 102 -30 -35 73 61 -120 -127 59 -26 18 -12 97 64 -40 125 -103 -109 39 38 -127 -43 0 57 -124 -82 -50 20 -18 -42 60 108 76 -57 120 -75 -60 -86 -20 -88 -53 -8 109 -93 2 61 36 -25 2 124 -123 -25 -31 -33 -41
-59 86 -92 -76 -16 -116 -117 -11 -92 -75 1 -62 -113 93 -31 -82 -23 101 30 -5 13 -64 -99 56 -50 112 -101 115 107 40 81 -74 -115 69 -94 -55 109 16 37 -92 -17 12 -59 -58 -4 13 75 38 -50 29 -14 -51 2 -32 -8 70 -115 -57 89 -37 -83 -43 -35 -25 -108 28 -102 121 -80 -57 -24 117 1 72 74 12 126 -127 104 -78 -60 -18 17 33 73 45 -26 -26 60 114 -68 90 -76 6 6 6 -41 115 15 -119 -47 115 114 -111 -26 -54 -94 19 88 107 -82 -100 77 -109 62 89 -101 -74 121 19 122 93 -42 -5 58 119 -50 98
-23 -74 4 42 -37 -87 -19 28 -88 -90 58 -42 -85 96 -110 -1 -16 15 104 -8 61 13 6 -40 4 80 124 59 126 116 -57 -124 19 -89 -118 -68 119 -22 79 93 -37 -117 -9 111 -18 89 118 55 70 119 -46 74 1 62 -42 -66 65 -61 2 80 -31 -127 23 -120 126 -102 45 118 -4 -48 -70 -27 89 -72 -115 -57 121 97 95 -93 -15 73 124 -104 -34 -73 -57 91 39 37 8 8 2 95 -11 -46 63 73 58 -52 17 38 -128 -101 125 70 -85 64 109 -76 104 -99 -64 98 -37 98 -24 -126 -127 90 9 14 -68 100 -85 49 94 103
-89 -92 -97 7 -23 50 -91 125 -34 -70 59 22 7 16 98 1 -2 93 -57 -115 -64 -81 -121 -91 30 77 -128 -34 55 2 19 39 7 -86 -17 -83 67 -115 -70 55 -36 10 -70 -93 101 -38 17 -51 -42 -117 117 41 -1 0 45 72 25 -50 41 -92 -81 -106 -42 50 -46 -92 -65 -43 16 -123 -69 38 -43 -5 -119 49 -78 76 2 -35 -103 6 -46 95 -94 -38 91 -103 53 -115 9 106 -32 -40 31 -91 124 -112 65 -78 116 -57 26 0 52 -101 119 -38 -61 127 93 58 122 -103 104 -61 64 44 -80 -70 -63 -68 118 37 -100 127 -58 -49
-106 120 107 -10 -70 22 54 -3 42 34 77 -117 -7 -95 59 -88 20 -75 80 85 -25 48 -64 -69 98 61 -8 98 -20 -17 83 47 124 100 16 67 -87 81 114 -111 -114 -3 -55 24 -60 -22 42 -108 11 -90 72 -119 -3 84 -13 -2 -30 -12 -60 91 -101 45 -43 49 80 -46 111 -96 -98 -22 -63 29 -98 -53 -13 33 -7 114 -80 -95 -109 81 -16 -53 18 50 -14 -60 -44 31 21 76 -75 56 45 107 4 -36 35 87 95 -85 120 -5 48 -103 43 -119 -20 -97 -11 -47 -97 5 93 -90 11 9 55 22 64 25 16 94 -42 -45 -7 7
30 -118 98 -21 78 56 11 90 -92 105 -78 -42 84 103 107 -93 -103 -20 -14 -65 -79 2 63 69 95 -60 -94 1 -96 -23 -104 -21 -81 -4 7 -53 -103 -21 -124 -88 -67 36 -61 -81 -24 -107 -74 119 109 -82 -124 95 -48 -124 -54 78 -85 -81 112 118 2 -62 -80 62 124 -110 -9 90 11 -92 63 -47 -59 7 6 -43 103 7 -76 -49 -9 5 -95 17 8 18 -67 -112 -66 77 -78 -119 -124 -97 102 58 -15 127 -125 -37 -52 -52 30 24 59 14 -42 -102 56 79 -117 -117 -17 95 -109 -99 -22 -112 116 -62 -2 -106 -102 -82 -124 -102 15 -98
-78 99 13 39 -128 -103 84 118 125 54 22 -111 23 43 25 50 27 -37 15 8 -86 -49 29 117 80 -39 67 98 73 1 -70 -26 85 4 6 -26 -120 -19 -87 -92 -99 -112 89 127 101 106 2 99 -69 -47 -78 -2 -113 114 -114 -125 -50 47 -95 -99 -4 -95 79 -76 124 -111 100 66 -4 37 -105 65 31 47 41 108 -6 -3 30 47 -23 101 -13 -85 74 -47 -83 25 96 109 16 116 -34 7 -16 87 -55 10 -42 -84 21 83 88 -6 104 84 -19 39 -28 -40 -27 106 124 -114 124 -104 112 123 -12 -111 -17 5 124 -110 -28 25 -64 -34
-31 85 86 68 -16 -10 14 88 -81 -108 76 5 -97 0 42 -88 -86 -127 -78 -101 125 -80 7 105 90 109 -73 91 -128 -105 -50 -49 -22 126 63 -124 13 -81 -112 48 6 21 -48 10 69 5 -7 -104 116 108 -116 -67 -89 -77 -94 -84 -92 2 36 78 -17 -46 98 108 74 -31 0 5 72 -49 24 56 -66 -82 -119 -107 98 12 -31 73 -36 105 108 -37 -52 -41 -79 80 -45 69 91 -83 -71 72 -123 -31 -92 114 116 72 96 6 66 -108 -62 100 -6 99 -24 -117 26 37 -50 -110 -32 65 110 -49 -41 80 37 117 -2 -53 -62 77 -63 -115
73 78 92 114 -75 89 31 -86 31 100 -106 -123 9 34 108 63 71 -84 -1 -31 49 117 -82 9 33 -118 99 98 -97 -44 -107 -2 -2 32 14 98 85 85 114 75 102 -110 19 -21 -8 -61 -72 16 72 47 -30 26 -12 -52 -107 -110 -45 -57 -103 -95 -81 112 48 23 -126 -74 -86 -58 70 86 -30 118 81 -92 50 -4 -95 63 -111 119 52 -117 -85 -16 -82 72 125 -6 -77 -69 58 -1 -52 83 75 -66 -38 86 -16 -118 -53 -85 -99 -118 2 -81 50 55 -4 11 71 -24 -69 -85 73 2 -77 -69 79 78 -66 11 39 60 41 51 -69 123
109 -34 -95 98 55 39 -70 14 21 -56 -121 106 -120 79 28 -3 -15 56 104 -44 20 -36 90 58 105 55 35 -88 -60 117 103 87 -50 112 72 -106 94 -59 39 67 125 7 42 46 24 -64 97 -60 -8 -90 117 -35 -45 -101 34 67 65 -82 86 51 5 -105 -128 45 -86 -37 -17 23 -32 -40 9 -101 83 19 49 72 84 77 -83 -30 -7 9 -36 75 98 15 95 -49 -48 24 -91 15 99 113 103 -69 43 -38 46 -111 -73 -53 94 -70 -35 -119 -5 -9 80 24 -2 16 0 54 -40 50 60 75 -81 62 -126 118 126 82 84 -21 -85 116
-95 -25 66 -100 77 106 -124 100 -92 -121 -35 123 97 83 9 -112 120 -48 116 114 -57 -71 -5 -41 81 -10 -93 65 -5 -123 107 -40 -64 -103 -67 83 24 -77 -14 72 -109 -51 -51 93 -112 45 -55 -64 115 -91 -3 -58 -88 33 34 67 -86 -53 -107 29 -81 -42 -77 -63 -58 111 3 63 90 -108 1 52 12 -101 -116 102 92 36 -104 33 2 106 -32 -89 27 -5 13 -32 52 127 -92 44 61 116 -71 -73 -10 -45 59 113 -9 -106 -90 24 -41 55 55 75 -39 -81 -107 120 95 -12 -55 47 -84 -119 -2 -48 -21 19 58 -75 -115 -114 -114 7
-104 119 -87 -120 -57 55 77 -36 89 -109 31 58 -25 78 -25 111 58 89 19 30 -40 39 18 -123 83 113 127 49 -121 112 -4 -125 -89 -96 -95 89 1 -29 -73 102 -95 94 -6 117 61 125 42 38 -9 46 -84 14 75 -18 -117 -58 43 -102 -15 18 -105 -5 30 110 2 -104 -111 12 64 -43 21 -39 -38 -84 91 -13 -93 -52 100 2 56 31 87 -58 -89 33 99 0 -79 109 91 -103 118 24 50 25 -48 -91 115 -92 -8 -117 -42 74 52 88 28 56 -121 -63 22 124 -103 -8 -92 2 40 65 95 -77 -47 -117 -87 -66 66 38 94 -67
39 125 117 77 -79 60 60 -107 56 97 33 -39 30 111 -122 -126 94 105 -21 -51 -8 -54 0 34 91 5 -102 -109 -70 15 -99 -96 31 105 36 -89 -70 -95 -63 80 7 -99 30 82 82 -84 -69 21 34 29 12 77 -54 29 57 -48 121 38 -65 65 -41 -82 120 122 104 -36 32 97 -116 -38 7 -7 -44 83 -49 119 -94 79 16 36 26 88 96 -85 80 7 -72 47 -11 36 -64 87 -111 -72 9 85 50 52 72 -27 -56 -24 66 101 -31 -45 111 9 -45 -5 95 118 -16 -124 -84 118 87 -105 36 -17 -84 -13 -39 60 -3 117 -79 40
5 96 -12 -54 -110 -25 82 99 120 -55 81 56 114 -126 -113 -1 -11 -116 -47 72 115 110 -111 -118 -118 17 31 82 -122 -111 -57 -46 -67 -123 -45 -84 -126 75 34 30 -78 118 66 107 -11 125 -62 16 76 110 -106 52 -40 48 -63 -78 -26 85 -88 -36 -34 -64 -114 -16 72 -33 34 25 -113 -125 -51 54 -42 59 -103 -96 -2 -117 -126 -3 -19 -68 33 -9 14 -2 47 90 -78 -114 21 -117 -71 104 86 46 -33 52 -66 98 50 -62 -18 -7 54 -95 105 -24 80 84 59 32 125 -128 23 23 -58 -33 -89 68 -83 -4 -108 74 12 43 96 94
120 -109 61 -53 -86 -34 -50 -126 -84 -98 -50 79 -30 72 114 55 123 8 -68 -35 -95 9 -78 94 68 108 125 96 66 -12 -106 82 45 -43 -14 -77 39 -114 -44 -20 14 -108 103 -100 67 -62 47 -122 40 72 -38 -49 98 62 -94 90 -42 -74 -61 53 -42 -117 2 -119 -3 57 -67 -79 -110 81 -9 -23 -8 107 68 45 24 22 -96 0 -65 106 -122 -98 -103 3 -16 -89 -121 -102 -25 69 10 113 -79 43 -75 98 27 -109 75 10 -67 -6 93 111 127 -48 32 1 -81 29 62 -125 95 -122 -12 66 24 105 -43 121 -8 8 -118 36 -46 -26
26 -31 -6 75 -27 2 38 16 108 63 -34 -116 -32 68 74 -56 -99 83 63 2 -108 84 20 -31 -48 -21 92 62 1 109 96 -2 -23 48 63 -48 -98 116 -111 98 -18 12 81 -17 120 -67 124 114 -114 50 -11 78 5 36 -53 92 100 45 6 118 -71 74 13 97 51 109 -34 47 43 5 118 -9 62 86 5 0 84 -121 61 -18 54 -89 -93 -25 -60 54 81 67 -73 -102 127 59 -66 -120 -60 86 71 82 63 121 62 -116 -22 -68 -101 108 -93 33 -113 -8 10 32 -43 -29 -84 -128 0 -98 -11 -2 -66 112 96 -20 -15 30 -13 -110
-39 -29 -22 -26 -52 -84 101 50 37 85 -33 -16 -64 -6 31 -76 40 -21 -1 123 100 102 89 11 30 -67 47 21 116 51 51 46 114 -120 -62 -97 108 -5 -39 -22 14 4 -111 6 -56 -15 111 9 -19 -61 -109 86 44 -52 -106 -75 42 -22 -60 -87 -107 35 -57 38 94 88 -89 126 78 -59 -67 71 -68 22 109 97 102 -128 59 -94 -88 -42 -124 -90 24 -22 -114 -72 77 -110 125 -24 103 -32 -103 -94 -121 -20 86 -20 74 -70 -78 93 64 -79 47 -27 -20 -119 -5 17 -9 113 -90 31 -41 -97 11 -13 -3 -77 -122 42 96 -88 35 -19
107 -48 2 118 47 -82 0 -8 -62 -43 -89 -72 96 -87 108 89 -101 47 47 67 -95 -71 12 -52 -67 88 94 -23 -108 18 -114 -35 21 -5 96 -17 101 -108 102 -23 -14 38 14 -124 18 -67 33 -60 25 -47 89 -111 98 -51 -47 117 83 12 -128 -110 -92 92 58 40 58 -112 88 100 92 -9 88 -71 30 115 70 -27 -64 83 42 -73 -34 -56 -33 -17 -63 -8 41 45 42 -33 -123 48 26 98 -15 -89 12 57 -5 69 96 35 23 -10 109 84 44 124 -95 53 -1 92 -66 -90 -61 -47 -81 10 57 19 -35 -47 -103 29 -85 -12 127 100
-113 6 -15 96 -65 65 -113 51 -29 44 0 22 -115 -40 71 56 -92 -8 0 51 -40 24 -97 -15 -95 17 124 -52 111 -102 -14 102 42 18 106 93 15 -23 120 -48 126 -9 53 -19 -94 -18 -86 101 63 105 52 49 -96 -26 104 67 -12 23 -87 -121 -102 29 -112 -52 127 -24 49 103 -33 35 26 -26 12 75 -119 -6 77 -75 93 75 90 75 -122 59 -36 95 53 -47 -56 -10 108 -7 -34 -128 2 13 -67 15 69 109 57 -86 89 99 59 55 -73 -95 -74 74 73 -12 31 -99 -62 96 40 23 -36 98 39 -110 -38 -118 14 -112 115 -124
-17 41 -57 -9 -105 -95 -118 -29 -101 51 -11 -62 95 31 -95 37 -85 35 42 -37 92 -31 65 -88 54 109 64 -64 15 115 43 94 -6 -94 34 -86 15 -8 -7 24 -2 -14 -65 63 -39 9 86 -29 -39 -111 19 -14 37 57 24 -6 -40 121 -105 -16 -127 -68 101 41 -61 59 -78 19 -114 6 -79 44 -85 25 25 -17 60 -81 66 56 83 101 -16 74 -111 -52 -88 -6 -103 -53 -2 -89 38 122 105 -24 -75 27 34 -71 -83 64 -42 92 -120 15 25 -84 -24 78 -95 102 -75 88 65 -39 6 -65 77 -14 -103 74 -99 -91 -82 -116 25 -61
-28 -26 98 85 -105 -28 107 75 -96 41 6 -24 14 -118 -50 -104 72 53 -108 -41 -51 -128 -45 -102 -42 -81 94 108 88 -21 2 -54 -7 -49 -99 -37 -11 4 62 -62 109 -29 21 16 82 118 -91 -96 -73 26 -56 93 100 -107 15 -89 47 -41 -55 -30 76 -127 40 47 83 -62 -120 104 -108 107 78 -65 98 -12 116 -51 12 -9 46 -55 -111 32 -95 -27 83 -46 -98 31 -108 22 -105 21 111 107 -122 -105 -4 121 110 -78 60 -28 -9 -71 113 -97 -22 126 3 123 -23 83 88 84 88 67 -63 -117 102 -58 115 63 100 -78 -52 -22 118 -85
74 -12 65 124 -38 -5 47 -77 51 68 23 -68 -36 24 -19 73 -53 83 -50 -38 7 36 35 -53 89 65 -76 75 -65 -93 -58 -92 35 50 -30 -5 79 114 15 99 -75 111 -56 -30 -39 81 66 28 14 -11 -98 21 -119 -85 37 67 88 3 53 -24 -48 101 -86 -127 79 -116 -106 -50 -112 16 -16 24 -37 80 -49 40 113 -54 62 74 43 127 43 -16 -51 -44 67 -117 125 114 -51 72 -79 -95 -70 -89 38 1 35 -57 84 12 -91 -7 -26 -43 1 23 -123 -116 89 -90 -116 -44 -84 -94 -47 14 -114 -40 -14 -37 109 52 -86 -71 -125 -94
83 -31 -60 18 -122 113 -89 60 8 -81 -58 28 -2 -34 -9 108 92 27 -5 39 127 32 -101 -6 -44 44 -128 60 9 -24 107 29 -3 -8 55 -108 89 36 -108 -102 -64 -30 110 -28 84 40 66 -124 10 51 54 -96 -110 -33 -119 30 102 25 -101 114 29 29 93 78 87 119 -28 126 36 -14 -27 -60 37 -28 -90 -104 -38 112 1 22 67 91 -14 22 -128 -37 -27 -63 50 59 2 -102 88 78 -95 -43 111 -55 -62 45 -62 20 -87 -64 46 -122 -95 -85 -72 -79 -107 23 -56 104 -103 31 -118 -66 -125 -43 9 39 64 -52 -11 -11 49 122
-105 -15 -80 91 -85 79 62 124 -7 -8 83 -69 -103 50 85 -48 56 38 31 -11 68 118 81 -47 -84 -63 -122 41 -42 68 -100 -72 -53 -62 103 -47 14 -105 89 115 -106 -65 80 74 79 -8 52 77 68 -83 -32 -78 99 -128 120 92 98 -102 95 59 -124 89 111 80 76 -24 -70 -31 50 42 22 56 -98 -34 69 83 24 105 127 90 108 -78 90 -47 106 -47 -21 85 57 55 118 102 -101 -76 120 -106 -25 -36 -38 28 77 80 70 66 29 74 -120 -26 -91 56 9 -47 -48 7 25 93 0 72 110 -29 23 -37 -81 75 -95 -10 43 -44
78 96 -16 -47 42 -123 120 32 -41 -53 -108 34 -102 29 124 -44 -112 -116 -32 -77 37 22 -37 30 1 -83 112 -50 -109 15 -14 32 -120 -37 -24 -113 90 -113 117 83 -119 7 -67 123 50 -6 -117 7 116 -95 73 22 54 -87 -14 -42 -15 3 -67 90 8 1 -10 -62 -63 -15 -96 -86 -29 99 19 117 -16 -19 52 21 -74 32 -57 113 127 107 106 -7 14 102 42 111 -92 -4 80 94 51 71 -9 -53 -56 -106 63 71 -44 76 -89 69 -86 -83 94 -72 -44 -107 -27 -75 -10 121 -54 49 -51 -84 -90 -7 -104 -112 35 65 100 51 104 47
-22 79 -64 -42 23 -102 -5 50 -62 -65 -115 67 69 121 -125 63 105 -100 -40 110 109 -29 -8 -111 8 91 14 53 -41 -86 -120 -51 76 35 26 40 -122 107 -68 18 96 -11 30 103 101 -16 1 -57 -49 12 -16 68 108 -65 -114 6 52 -51 -103 -94 13 85 123 80 -57 62 -72 11 67 -91 97 -19 112 87 127 13 -39 18 -40 -50 -28 107 74 -78 -82 76 -25 19 23 -9 -69 -75 117 -75 -11 -40 76 -34 113 29 30 62 -30 -26 -86 11 -3 84 113 -47 60 -23 -14 57 -56 88 -88 56 -45 -100 -46 37 98 -125 -27 -23 -95 52
-105 74 116 -38 -85 76 -125 -20 94 -85 9 -47 124 -103 -31 -33 126 114 44 66 7 -84 43 -116 -28 79 73 -128 -56 -58 59 77 -30 3 -40 78 119 11 7 69 -100 60 -69 -123 -36 -73 62 -84 -13 -62 80 41 14 -1 -35 -37 -62 -79 -10 -65 104 53 90 -87 66 -5 4 -11 -94 -47 -29 58 35 -64 -121 122 -124 -74 69 -102 29 -65 -59 75 -65 -90 101 50 -23 120 -106 104 12 -41 4 -72 95 -121 -128 -45 45 49 45 100 -71 28 -122 115 -38 10 -15 12 -54 98 20 2 88 17 66 -79 2 -31 -128 -119 -26 -86 126 102
-44 50 -1 -75 -23 83 -127 -73 36 -81 96 -41 30 -11 -57 -62 55 3 107 83 -51 41 -33 -123 -99 116 112 -78 -111 121 -62 -11 26 -116 46 126 -70 6 -13 -79 -100 -4 14 -41 35 14 -1 -37 61 -46 -21 29 110 7 -55 105 -82 -76 115 37 -96 -117 76 -34 99 -1 19 111 -67 34 17 120 17 -109 -72 14 -99 99 -125 22 19 -115 -126 45 21 83 -103 -91 90 1 66 21 -31 -72 -2 -75 17 -6 -57 -47 -7 100 3 -101 -60 26 -57 -23 -13 117 -15 -64 -91 -122 84 -122 -37 84 105 91 64 73 97 114 91 -21 98 37
-99 -115 -88 95 30 -106 13 64 -100 59 -1 -114 -125 -38 62 11 -92 -27 -46 35 -125 73 111 -106 39 33 -40 -76 -10 63 -73 5 110 -51 30 -7 -22 125 -92 -37 -19 25 20 -86 118 -33 -92 88 -106 53 77 -72 -5 86 -7 -115 -77 -5 36 72 84 -67 24 72 19 15 27 61 119 -123 -93 0 -30 -25 -102 -101 -59 102 15 -88 2 -50 -38 -15 99 60 -117 -11 88 -13 -57 79 79 71 66 14 -3 -18 -54 107 60 4 103 30 -11 100 -22 -79 -100 -35 -64 82 -24 -87 5 94 9 17 -16 97 33 120 101 29 118 80 -91 61
57 -126 40 -44 -120 114 120 -91 -9 -17 111 -45 85 61 -90 -26 118 109 104 -73 -49 -29 -51 28 -16 88 -6 -104 35 5 -122 35 12 89 84 20 110 98 74 121 -45 -107 -97 -44 -28 -94 124 -34 82 16 -15 96 -56 75 19 -91 41 97 45 -113 121 22 -37 100 -104 27 29 56 47 -1 91 -21 59 -113 65 -22 -123 -76 2 57 -18 89 -2 35 -32 75 -125 -69 3 -84 -28 -126 23 67 -104 126 98 -70 101 -63 -65 -100 -74 -80 8 -25 -25 8 -6 -116 106 98 28 -63 119 33 -85 14 104 -74 51 -33 91 -105 -75 124 6 60
-6 84 -75 -3 119 -14 -128 15 12 -90 -29 -66 101 18 -21 21 1 111 -61 -36 -26 -101 84 -85 92 -119 -89 62 74 46 -61 79 76 97 -113 -101 92 -96 22 66 121 -83 -101 104 8 -53 87 -104 -127 8 39 -47 13 -26 54 -107 53 -109 64 121 -41 60 -120 12 -27 -120 -84 31 -111 -83 72 -67 -122 -35 25 29 -62 -3 -101 8 -9 70 122 -13 121 -119 -90 70 -104 17 -51 -119 7 -30 12 14 -94 -65 -12 11 18 44 38 59 -48 1 95 41 27 -40 -45 -32 72 -86 -63 -107 -79 54 112 -118 43 -46 117 31 -49 -60 106 -96
108 -110 -107 40 -44 87 -5 -67 5 9 -88 52 80 97 -73 25 -124 60 -4 83 -101 -65 13 -73 84 114 115 -124 -104 51 26 115 -77 99 91 -34 78 -26 106 29 72 -37 -4 -8 -115 -29 -36 78 -39 -5 -30 -103 -70 -127 -59 57 -80 -1 -21 119 24 -74 106 81 -103 96 -44 -127 -64 84 -2 108 -4 13 26 -72 -96 -56 9 107 -6 -71 -32 93 -34 9 -109 71 10 105 107 -71 109 22 -51 -69 -81 121 -35 76 -87 75 2 -91 117 -71 -43 -75 55 6 100 77 -41 27 71 58 -49 -100 -125 -77 -103 66 38 -3 102 -66 -83 51
-57 -27 115 -27 68 126 95 32 105 66 81 33 -43 -29 -33 -11 -118 5 -105 87 84 71 -69 -14 88 -94 17 -70 26 100 -79 65 64 88 26 -70 97 103 -70 97 20 40 78 -81 3 -70 -11 24 82 -73 -74 26 99 97 100 -67 80 88 55 40 110 -96 97 87 -15 16 19 -76 -128 5 -48 -117 19 -128 98 -113 23 95 29 68 -93 75 14 121 -105 -39 -71 88 -115 44 -127 126 114 46 102 76 31 35 116 -42 16 97 7 -29 11 83 -32 67 78 -45 -22 -17 88 60 79 3 87 78 -48 -93 -1 -30 -68 74 126 68 -69 -3
-114 69 85 -12 -14 -76 66 -15 41 -63 -19 -119 -21 -101 -115 -39 -114 -18 95 81 -16 -28 59 -12 66 -95 3 60 116 42 -91 -21 -14 -110 46 -81 -33 111 -103 -90 17 33 -95 -35 63 -19 -97 -81 100 -80 -41 -78 64 42 -101 -29 -45 -38 105 20 116 -35 68 -105 52 -24 68 11 -17 -6 -66 -65 42 42 110 -119 56 -34 -123 -21 -66 112 -18 -77 120 -25 58 104 -69 96 16 -48 -124 25 101 -57 -79 -28 59 -93 123 76 -105 -1 75 48 -53 -61 -76 -124 -46 28 -120 -113 73 -71 -30 -54 -28 26 110 -96 104 -41 -83 -40 -18 -77
-121 121 -123 22 -12 -75 74 -37 65 25 -27 0 56 33 51 -105 103 0 50 -87 86 106 20 -62 105 -71 -77 86 -40 -57 114 -34 -32 -49 -32 113 -81 45 90 -106 -77 -76 -99 -17 33 41 -47 111 49 -114 -34 36 2 0 -57 5 125 -39 -98 62 58 98 88 106 116 118 59 -91 -23 -9 -102 34 67 4 66 74 -14 -101 23 -3 -4 82 -11 -48 -53 115 56 54 -44 27 -41 -94 93 100 52 -122 9 -100 -33 -110 -70 -70 -10 71 11 -40 -39 -13 -21 -91 46 -21 36 16 124 45 118 -75 -94 -25 -14 -111 67 -26 -2 17 -43 102
-73 53 117 -72 -54 -76 118 126 38 70 98 91 -103 -24 97 -108 59 113 -7 97 -87 -90 -72 83 6 -84 119 -115 -91 39 -121 82 -14 46 -29 -88 -67 30 50 68 -65 -44 -20 -8 81 -108 93 13 111 -117 -117 -106 44 10 31 53 46 58 30 -99 -124 16 -126 -102 58 53 49 35 -66 -69 82 60 -86 -82 9 91 116 -51 105 105 116 -120 -84 -5 -88 -103 125 115 -6 83 103 73 11 -65 -71 9 46 30 108 -103 -57 106 -81 97 88 -69 121 -21 103 103 115 -63 -122 81 92 -86 -111 -93 -85 75 -34 -9 -25 63 80 -58 108 -84
0 111 -15 -91 -115 124 127 -63 75 41 -27 -36 -49 3 -121 24 59 81 -125 -15 96 -77 -16 23 36 -112 -96 98 -20 -25 64 20 86 -93 -89 -125 68 20 88 -115 -28 -45 -3 16 104 -10 -99 -25 44 -115 42 -10 -128 -34 43 62 -108 -109 -118 -87 -43 116 122 -21 -121 122 50 6 -72 -107 -4 40 -112 110 75 -85 48 -113 92 -91 65 27 -64 121 -11 43 -55 -22 -34 88 -25 0 -92 77 15 87 -109 -82 80 -14 -7 105 -120 95 67 -57 -66 -124 94 -82 111 8 87 33 123 16 124 -73 -111 -118 20 -11 -57 107 33 105 -65 3
-79 -71 113 110 -56 -85 107 -10 39 29 25 -91 87 87 53 0 -85 -63 -125 -112 5 75 -111 -50 -12 -69 32 35 -34 79 63 -55 -8 107 -92 -46 58 -85 -78 -90 15 6 -114 -119 77 4 112 88 39 -118 95 -94 40 -19 -52 67 56 28 -65 74 -9 34 -2 -62 113 98 62 -85 120 81 -43 117 -102 68 -31 96 -109 77 -38 50 -82 -113 -83 -1 99 94 -107 85 64 -112 118 11 -123 115 19 -67 -77 -49 -20 -105 -44 118 -2 -117 -14 -110 9 3 -64 111 -3 70 89 60 -66 5 81 41 1 69 99 121 43 58 8 -67 -62 -84
-109 -123 44 23 49 74 0 -45 -44 -11 87 13 20 70 101 117 51 -39 7 -95 -98 -25 -121 -72 -116 39 -69 114 126 21 -88 -115 81 28 -72 -37 -66 -7 55 34 99 117 -40 -105 42 -20 4 -7 105 5 -84 45 126 -21 69 -87 -11 47 89 -18 89 17 -100 -20 116 3 112 65 -21 77 -120 127 36 106 -73 91 108 92 -127 88 74 75 42 116 -103 -18 -90 29 -31 -26 98 -86 -70 -103 71 95 20 -123 -103 -40 -74 78 -35 -8 -25 19 -65 42 -122 73 -92 -73 -55 -121 -95 12 -34 -10 -28 -63 88 88 13 61 -24 -16 -126 -5
-4 -50 110 -10 -116 -119 -21 -111 -42 -47 117 10 54 -52 42 43 81 108 63 -34 -97 97 7 -19 -59 13 -90 24 -45 -4 108 24 1 -118 -69 76 6 108 52 -83 -62 25 54 -20 -68 108 70 101 39 -117 -55 35 -121 -73 -67 1 24 26 11 97 -21 50 77 -21 42 54 -65 125 -126 -84 91 73 0 -128 -31 -38 -73 -125 55 105 -31 72 -62 -73 30 -87 -107 -30 -78 -48 93 -83 -58 -120 -25 113 116 115 -91 93 -97 61 124 32 98 10 -75 39 -28 -31 116 55 20 -53 27 -12 -13 71 92 110 -108 50 -22 79 80 -14 -22 -50
-121 -35 121 23 61 105 -84 -24 6 31 -107 60 -53 -24 -13 -30 124 -58 80 -59 -30 -67 69 -104 -116 27 106 119 106 37 102 -121 64 123 58 62 12 -125 -18 22 16 67 -96 84 -82 41 36 -7 124 -82 -61 48 28 -23 36 -116 -40 40 71 29 118 -110 78 10 -64 -15 -8 83 -69 69 -27 104 -22 -3 22 -109 -80 -53 -25 -34 -2 -6 1 97 -117 0 -63 -47 -41 -64 101 -30 -2 -53 62 -96 -97 -40 -39 114 -101 -101 -6 -95 0 89 -92 -56 26 -20 4 97 -15 -97 127 102 -118 121 1 -9 -29 -68 -69 37 115 25 23 -53
-50 126 106 -9 47 105 -3 70 76 55 -15 -1 -76 -20 72 -124 -109 -3 -119 55 -81 -18 -126 -72 55 -13 -42 -84 -50 -14 10 5 125 -99 -125 46 44 -38 -115 -23 109 -1 -27 81 -42 62 18 94 82 -90 44 -114 72 25 -29 117 -92 57 -73 -71 -30 31 51 -2 -71 -19 55 -120 18 -21 19 -9 53 -67 -93 63 -52 71 -7 80 -7 58 41 -101 -32 45 103 -66 -117 108 20 -52 11 93 -81 16 44 52 31 57 -85 -107 -7 -53 61 -86 89 93 -48 104 -48 68 -6 2 -44 -57 -48 100 116 42 -1 116 42 -47 17 121 53 95
-123 -107 50 -61 -26 115 110 90 108 101 78 -72 65 -105 52 77 37 -100 93 -49 -24 -113 90 65 -76 99 -9 -97 -97 -75 50 -44 64 94 -116 -8 -19 -1 51 -23 -14 -108 32 -61 -60 -110 36 65 -28 18 -26 52 20 66 23 -81 -56 -69 -84 32 -7 -19 103 -48 -41 106 -7 82 80 107 -39 101 -18 45 86 82 -71 85 -90 -44 -33 107 -74 8 -98 -6 1 56 22 -115 65 45 -54 -49 20 46 -20 99 -97 -68 -61 -42 -30 -79 116 -30 1 73 -29 -85 -58 13 -47 -35 105 -46 -114 5 11 -19 48 54 116 -68 -74 -115 -66 -20
-5 -58 45 -64 -49 84 126 1 8 -88 103 89 -119 64 -32 -60 -47 -18 110 -15 -65 103 61 -1 -26 -80 77 -57 -57 -64 -73 -28 -59 13 -71 12 -99 103 94 -40 -30 27 -9 123 103 95 14 37 -3 79 75 -80 -90 -20 106 62 -90 -23 -105 -120 -40 -17 -34 6 -12 88 -9 -67 -120 16 123 -27 -6 -35 -88 -81 -61 126 -78 -42 21 45 45 27 121 -119 -77 -88 7 -105 -100 12 114 -49 -115 31 34 48 -1 1 -50 -9 42 9 118 72 -125 -45 -107 -13 -30 -99 -112 66 123 -88 -128 -84 106 -29 -75 -74 -23 -36 -41 -118 -50 93
-9 82 -77 39 47 -45 18 -10 42 93 120 89 -60 89 -118 84 -115 101 -110 68 16 -111 -64 -57 -34 28 -24 -73 53 12 -75 -50 6 -25 -91 17 6 -42 -46 71 28 42 9 -66 1 -100 47 -42 -2 -66 -88 -111 32 -77 -45 109 -92 77 -21 89 111 12 -82 -87 71 119 97 -57 -67 37 -116 -25 17 17 73 113 16 45 71 47 63 -8 -118 121 40 32 -2 124 63 23 65 -65 -4 -103 50 87 -120 -103 14 -127 -64 -97 122 42 91 95 69 28 -25 59 61 -70 20 82 34 -61 63 100 89 96 -99 28 -53 46 -44 -116 -65 -86
-23 -123 -105 -71 -127 79 -102 90 -40 85 56 30 -110 -103 -124 126 -47 -124 108 78 30 -111 -21 111 96 -67 103 63 112 -2 78 42 -121 13 -56 13 -72 51 37 -66 93 113 25 28 -94 54 -74 14 1 87 -79 -46 -68 100 -15 57 -10 -115 -118 70 92 -74 11 -81 61 -109 59 16 23 -39 -86 -2 103 -95 47 20 -20 -78 -100 -125 44 86 -23 63 73 -61 -84 54 126 -119 -123 -64 -2 55 19 19 -43 8 -70 103 122 -97 -114 49 -29 -81 -58 13 83 77 -83 -5 -100 70 -30 -114 -3 12 -21 60 -87 -74 1 -9 54 -111 27 -71
-104 -9 -84 -36 83 61 67 34 -115 -97 90 71 114 46 -49 42 -29 -47 125 54 78 -93 -49 32 18 108 -60 104 -57 -8 125 104 93 -84 2 77 18 -112 46 -117 36 84 63 -81 112 -31 -96 3 32 -66 -40 43 117 -69 73 54 -120 -36 2 -122 93 -41 19 -6 -103 -84 -80 -92 -55 12 -12 26 -42 -29 -89 -30 -35 -101 -5 97 -35 75 18 -106 10 -60 -117 26 85 -49 62 83 101 -46 -106 95 123 116 -49 -27 111 96 -14 -97 -4 116 -9 -59 -70 69 118 95 -127 99 88 -62 -124 -54 -118 76 45 -32 116 26 -5 -70 -116 105
-94 -125 42 -42 -89 -26 60 -67 121 7 118 -126 55 -54 28 87 12 109 -23 75 -99 116 -84 121 -92 108 22 -6 -16 -92 -58 7 121 89 24 -34 3 -25 124 16 -55 -65 55 -64 -99 21 108 26 -119 -67 -99 93 -45 24 123 -12 -45 -53 -78 -125 5 67 -81 -14 -104 104 79 -14 -92 -25 -78 82 -99 -73 58 -120 -43 107 104 5 53 67 -117 14 -70 -126 52 6 52 56 -126 -97 101 -92 126 -67 -122 -26 -106 -24 11 57 -96 -73 116 123 -52 -109 52 -65 27 106 110 16 103 -127 32 -58 55 97 -81 -96 54 -66 -39 65 55 42
-56 -102 -11 70 -106 38 0 126 3 60 60 -75 36 123 106 -111 62 -63 -8 -124 -62 -65 -38 -36 -22 -94 -52 -126 127 45 66 -81 -35 98 64 74 27 81 31 6 -92 88 -98 -82 -81 -12 124 -96 107 -17 58 58 -110 -94 -114 28 84 123 64 -43 87 -33 28 86 -109 4 96 -126 -103 43 124 -41 -95 69 -123 -117 96 114 109 102 94 -90 -65 75 49 -5 109 -3 -53 -98 7 89 -72 125 93 78 -40 -74 -102 -86 65 -32 -106 -85 -116 -21 34 -89 61 6 -29 51 -29 124 -127 -50 -73 110 -9 -55 94 -61 54 -46 69 83 112 9
36 -121 21 -66 54 -97 26 -41 55 89 103 14 -7 80 -122 81 26 61 -8 31 124 96 58 -26 3 -59 30 109 79 7 -63 -28 -122 -68 -123 -98 49 98 -25 86 -114 -94 -9 33 96 -117 -51 30 87 63 -36 -88 -25 -62 -39 -65 -79 -92 -38 42 0 -88 27 -2 -48 -32 77 100 109 67 18 -124 -42 -71 -128 -115 48 -81 70 -91 -108 -31 -56 43 75 102 79 -80 103 -5 -23 71 -83 15 71 -123 -5 62 65 -83 81 104 -95 -32 35 10 -56 -105 104 86 121 103 -125 78 6 -94 -92 -78 -54 20 69 -118 -11 96 63 -98 -116 36
